tree
num_class=1
num_tree_per_iteration=1
label_index=0
max_feature_idx=56
objective=regression
feature_names=Column_0 Column_1 Column_2 Column_3 Column_4 Column_5 Column_6 Column_7 Column_8 Column_9 Column_10 Column_11 Column_12 Column_13 Column_14 Column_15 Column_16 Column_17 Column_18 Column_19 Column_20 Column_21 Column_22 Column_23 Column_24 Column_25 Column_26 Column_27 Column_28 Column_29 Column_30 Column_31 Column_32 Column_33 Column_34 Column_35 Column_36 Column_37 Column_38 Column_39 Column_40 Column_41 Column_42 Column_43 Column_44 Column_45 Column_46 Column_47 Column_48 Column_49 Column_50 Column_51 Column_52 Column_53 Column_54 Column_55 Column_56
feature_infos=[1:4] [0:1] [0:6] [0:1] [0:1] [0:1] [0:1] [0:1] [0:1] [0:1] [0:1] [0:1] [0:1] [0:1] [0:11] [0:1] [0:1] [0:9] [0:1] [0:17] [0:1] [0:1] [0:4] [0:2] [1:104] [0:1] [0:1] [0:1] [0:1] [0:1] [0:1] [0:7] [0:11] [0:4] [0:13] [0:0.90000000000000002] [0:1.8] [0.061237243600000012:4.0379450218999997] [0:3] [0.14142135619999999:1.2649110641000001] [0.25061906820000002:3.4425629507000002] [0.1095445115:0.63166446789999997] [0:3.7416573868] [0:0.90000000000000002] [0:0.90000000000000002] [0:0.90000000000000002] [0:5] [0:6] [1:10] [0:9] [2:12] [0:7] [0:25] [0:18] [0:10] [0:12] [0:23]

Tree=0
num_leaves=31
num_cat=0
split_feature=40 12 2 12 37 40 32 2 3 32 2 2 40 32 34 37 37 20 3 40 20 24 35 37 35 3 41 37 18 40
split_gain=24.236457280686583 10.582046521794119 6.8103748724994553 6.3470114336120105 5.2967422702774076 4.0222697327346442 3.5865829818893502 3.6743530821401889 3.5028974722617185 3.3345829840541485 2.5209049230520506 2.5089365605769043 2.3839699033508857 2.383039122159285 2.0221862807884321 1.6794879651131858 1.6335686007332537 1.5659074923656036 1.5379437871262889 1.5038770627531655 1.4070493843857408 1.3376121448933107 1.9918033083687066 1.2683521827495987 1.2533453721122121 1.1863077894101277 1.1606628926099918 1.1459681031466928 1.1134842880455444 1.4173336031144421
threshold=0.94351171670000011 9.9999996826552254e-21 1.5000000000000002 9.9999996826552254e-21 0.6756940480000001 1.3506579309 9.9999996826552254e-21 9.9999996826552254e-21 9.9999996826552254e-21 9.9999996826552254e-21 9.9999996826552254e-21 9.9999996826552254e-21 0.78329010485000017 9.9999996826552254e-21 6.5000000000000009 0.96614567940000007 1.5910884609000002 9.9999996826552254e-21 9.9999996826552254e-21 0.74985535790000013 9.9999996826552254e-21 54.500000000000007 0.65000000000000002 0.92246272085000014 0.55000000000000016 9.9999996826552254e-21 0.33933751805000006 0.62824154445000013 9.9999996826552254e-21 0.88955718390000016
decision_type=2 2 2 2 2 2 2 2 2 2 2 2 2 2 2 2 2 2 2 2 2 2 2 2 2 2 2 2 2 2
left_child=1 2 4 5 19 11 16 15 23 -6 14 13 20 21 -5 17 -3 -8 28 -1 -11 22 -2 -4 -15 -22 -19 -20 -9 -30
right_child=3 6 8 10 9 -7 7 18 -10 12 -12 -13 -14 24 -16 -17 -18 26 27 -21 25 -23 -24 -25 -26 -27 -28 -29 29 -31
leaf_value=0.035726910830785524 0.036319993441348876 0.040273303632548323 0.037203038937361828 0.038802124251777051 0.037814090573221881 0.038037576432404553 0.038152440885205044 0.041083088238931864 0.036342428260354873 0.036999129166018302 0.040335624155286104 0.037977988180994168 0.036593204710666183 0.036435140557668125 0.03742644192423282 0.037529276856486174 0.051868149294896582 0.037011077376699932 0.035775539685946205 0.03609435598687348 0.03624690351685577 0.038252077764877518 0.047385567294285634 0.038252914360941713 0.036965288942219877 0.035847368468238494 0.036241076735616481 0.038447419060745426 0.038121660428432319 0.042964672897199574
leaf_count=71636 61 599 8821 5071 3702 9607 1613 656 11253 4421 1397 5186 42770 16643 5645 7214 32 7917 685 45554 44948 294 122 4269 33769 31670 12817 969 1424 169
internal_value=0 -0.0041808398011918052 -0.0062841223488714244 0.015605373569496095 -0.0078709984912812333 0.011726447768768699 0.012416184682102389 0.011007801442358758 0.0096674932664521877 -0.0034107608353816507 0.036638610954402961 0.0084873678362162256 -0.0042950392792074467 0.0063520403186758962 0.03142985241844299 0.0072002898645753457 0.087107368096969021 0.0029176915491294629 0.03984558001034632 -0.012724052196728897 -0.0074828818409546074 0.076701602986398734 0.14382192516913178 0.020789700930950932 0.0056863904457784952 -0.0084838090275480577 0.00058289483661038484 0.016698408452962877 0.056868888928048499 0.042590100760177031
internal_count=380934 303139 269044 77795 244701 65682 34095 33464 24343 127511 12113 56075 123809 50889 10716 29561 631 22347 3903 117190 81039 477 183 13090 50412 76618 20734 1654 2249 1593
shrinkage=1


Tree=1
num_leaves=31
num_cat=0
split_feature=12 17 36 4 2 2 2 32 3 2 4 2 20 42 32 42 32 32 34 5 35 37 41 36 32 36 43 22 45 24
split_gain=16.963715874000766 11.209484610908342 6.8274321398110063 6.3551632214553209 4.3396933510921833 4.0250753686064797 3.2489436813750556 3.2321113264407049 2.8895127990901042 2.8812063947467865 2.1426629318017212 2.1003208658677859 1.9336198131295104 1.9077690002375414 1.7050873967092368 1.535753143991208 1.492445338948504 1.466217667379708 1.4456892404017534 1.3968303935736865 1.3955387783758715 1.3840365626325997 1.2799376627033787 1.6853235950440584 1.2072621389234772 1.1675345455396204 1.1653065543290955 1.2517374283500882 1.2092663134999531 1.1594925019204627
threshold=9.9999996826552254e-21 9.9999996826552254e-21 0.45000000000000007 9.9999996826552254e-21 9.9999996826552254e-21 9.9999996826552254e-21 9.9999996826552254e-21 9.9999996826552254e-21 9.9999996826552254e-21 1.5000000000000002 9.9999996826552254e-21 9.9999996826552254e-21 9.9999996826552254e-21 3.0811388301000004 9.9999996826552254e-21 3.2394512253000003 9.9999996826552254e-21 9.9999996826552254e-21 8.5000000000000018 9.9999996826552254e-21 0.55000000000000016 0.62574950075000013 0.32054639900000009 0.55000000000000016 4.5000000000000009 0.95000000000000007 0.45000000000000007 1.5000000000000002 0.35000000000000003 33.500000000000007
decision_type=2 2 2 2 2 2 2 2 2 2 2 2 2 2 2 2 2 2 2 2 2 2 2 2 2 2 2 2 2 2
left_child=1 2 8 11 7 14 10 29 9 21 -3 12 -2 -9 22 -10 -12 26 -16 -19 -17 -1 23 -5 -18 -7 -14 -28 -29 -4
right_child=3 6 4 5 -6 25 -8 13 15 -11 16 -13 17 -15 18 20 24 19 -20 -21 -22 -23 -24 -25 -26 -27 27 28 -30 -31
leaf_value=-0.00050885161209468358 0.0017948879381327967 9.9471983533953835e-05 0.0037207606454657243 0.0041970188030973077 0.0011670225062805559 0.0035292826967601044 0.0017646860130991985 -0.00038301424408565142 -0.00078633280864178639 0.00065564779963324469 0.0046727642632466704 0.0016149166380629123 0.00053120943872878956 0.00012777031454583158 0.0017735248232034065 -0.00067838102148103281 0.00038625214689308842 -4.35694341736469e-06 0.00048258468405699403 0.00080868555401000537 -0.00010511727043077348 -0.00010752480731015146 0.0036002856109063237 0.022934923763386905 0.0011250538206007059 0.0069287315770096176 0.013465534186079389 0.0091737527205650489 0.00066742536083266553 0.0011692021146191152
leaf_count=43957 2232 25733 601 24 8693 1213 4882 29244 55693 8435 242 3903 216 48762 8355 20899 12062 19418 2929 7257 21577 42018 98 24 10210 319 42 67 111 1718
internal_value=0 -0.0026124806453235259 -0.005126102291460561 0.01782757406056229 0.0021162597568537738 0.036609428071544374 0.010710343324396413 -0.00018068250116810708 -0.0084738223690227332 -0.0045239229904665886 0.008222809463030889 0.010504876843142157 0.0076060642320114917 -0.0012743974761318232 0.030157979088244684 -0.012272475715083969 0.015347412148763732 0.0052768597691588348 0.028768682094057776 0.0043366657455836712 -0.0077434788172223868 -0.0062542757002393605 0.13753350841978643 0.27131942566484213 0.01449871848433696 0.084742627731541426 0.062799051463809041 0.11402528028596531 0.077384904194413948 0.03660945563467477
internal_count=380934 334726 281597 46208 89018 12962 53129 80325 192579 94410 48247 33246 29343 78006 11430 98169 22514 27111 11284 26675 42476 85975 146 48 22272 1532 436 220 178 2319
shrinkage=0.05


Tree=2
num_leaves=31
num_cat=0
split_feature=40 12 2 12 37 40 32 2 3 32 32 40 2 2 34 17 37 37 3 20 40 34 41 37 52 55 35 32 24 14
split_gain=20.647183566510829 8.5061322583560006 5.6343759100904265 5.272450322730748 4.4187503112208724 3.4263342687109155 2.990809115920932 2.9881454687843676 2.8532032057700509 2.7957244707417592 2.0728805299783577 2.0666310435033663 2.0648244803434466 1.9861156340822697 1.7480408010117667 1.589864649180134 1.7131948607393088 1.579977337411536 1.4447703854519407 1.303437994118712 1.2810605109426696 1.1608169610572774 1.1602845027417239 1.1097768071141934 1.0943657026266846 1.4333809671425879 1.068912292296103 1.0466055783929571 1.0455171797420646 1.0748970480589679
threshold=0.94351171670000011 9.9999996826552254e-21 1.5000000000000002 9.9999996826552254e-21 0.6756940480000001 1.3506579309 9.9999996826552254e-21 1.5000000000000002 9.9999996826552254e-21 9.9999996826552254e-21 9.9999996826552254e-21 0.6692848039 9.9999996826552254e-21 9.9999996826552254e-21 6.5000000000000009 1.5000000000000002 1.5910884609000002 0.96614567940000007 9.9999996826552254e-21 9.9999996826552254e-21 0.74985535790000013 2.5000000000000004 0.33933751805000006 0.92246272085000014 13.500000000000002 3.5000000000000004 0.65000000000000002 4.5000000000000009 35.500000000000007 10.500000000000002
decision_type=2 2 2 2 2 2 2 2 2 2 2 2 2 2 2 2 2 2 2 2 2 2 2 2 2 2 2 2 2 2
left_child=1 2 4 5 20 10 15 17 23 -6 28 -11 14 21 -5 16 -3 19 24 -8 -1 -12 -21 -4 -9 -26 -23 -7 29 -2
right_child=3 6 8 12 9 27 7 18 -10 11 13 -13 -14 -15 -16 -17 -18 -19 -20 22 -22 26 -24 -25 25 -27 -28 -29 -30 -31
leaf_value=-0.00071271385826079752 0.0028278772422874517 0.0028002595274963164 0.0006199931062182769 0.0021169042924400311 0.001198382376678598 0.00083356242019085752 0.0014728169749005204 0.0025451022315994606 -0.0001454564975057349 -0.00051408968538260171 0.00098356171889371624 -6.4837815953789089e-05 0.00348685672020029 0.0013129797627762945 0.00083786654702665752 0.015608546011415975 0.014868756353614794 0.00097076070646795888 0.00064949848075476725 0.00049138570964892491 -0.00037357997648153319 -9.716210541492412e-05 -0.00026864975408001884 0.001602047767545125 0.0031733637937066852 0.015917300831319561 0.00039413298620795064 0.0018836177219677811 0.0017109392909333112 0.0096246978214297174
leaf_count=71636 132 572 8821 5071 3702 4278 1672 1811 11253 36160 5072 87649 1397 4979 5645 28 31 7360 1290 8146 45554 19212 13092 4269 57 36 26128 5329 448 104
internal_value=0 -0.0038559949809522402 -0.0057417221161850922 0.014406433518925931 -0.0071851012782550641 0.010871078108825389 0.011024297477519308 0.009738197429949462 0.0087674314120441375 -0.0031112674507304261 0.007881561745252133 -0.0039209512642810352 0.033576681520760647 0.0072059286062724666 0.028862594858023293 0.079230402060526103 0.068413926921723101 0.0066686582041773261 0.03882866466981251 0.0025737367022419955 -0.011617720317264315 0.0053240709881134411 0.0004573551279635896 0.01880534928892522 0.056334923399111426 0.16213001422984627 0.0037191126133258984 0.028320555582268748 0.062595005021893496 0.11646172622124017
internal_count=380934 303139 269044 77795 244701 65682 34095 33464 24343 127511 56075 123809 12113 55391 10716 631 603 30270 3194 22910 117190 50412 21238 13090 1904 93 45340 9607 684 236
shrinkage=0.05


Tree=3
num_leaves=31
num_cat=0
split_feature=40 12 37 40 2 2 2 32 32 12 20 35 34 2 37 20 4 12 14 34 12 3 3 41 34 6 52 29 32 40
split_gain=18.891800365808418 7.9361574256898031 5.9835253345823762 4.8178787132961798 4.1394786116840185 3.5067778363023212 3.3502782630927204 2.9120781521710404 2.3462652154386263 1.9965502971350149 1.7990620610934371 1.7568684988059389 1.7046012749301873 1.5930857891045296 1.5908331060462872 1.4838399076825017 1.4350138463528292 1.3208349561676909 1.1847524054034579 1.1644616036809108 1.1213209383871439 1.1202427898397593 1.0963946019448678 1.0523353700418978 0.97174612013523531 0.96587863855479261 0.97899256118972477 0.95057847166528564 0.92615179495985167 1.4074642483770337
threshold=0.83616876435000009 9.9999996826552254e-21 0.74644990200000005 1.2221213427500002 1.5000000000000002 9.9999996826552254e-21 9.9999996826552254e-21 9.9999996826552254e-21 9.9999996826552254e-21 9.9999996826552254e-21 9.9999996826552254e-21 0.55000000000000016 8.5000000000000018 9.9999996826552254e-21 0.8413159130500002 9.9999996826552254e-21 9.9999996826552254e-21 9.9999996826552254e-21 7.5000000000000009 5.5000000000000009 9.9999996826552254e-21 9.9999996826552254e-21 9.9999996826552254e-21 0.34720310315000008 10.500000000000002 9.9999996826552254e-21 6.5000000000000009 9.9999996826552254e-21 9.9999996826552254e-21 0.9501413552500001
decision_type=2 2 2 2 2 2 2 2 2 2 2 2 2 2 2 2 2 2 2 2 2 2 2 2 2 2 2 2 2 2
left_child=2 3 10 5 8 7 12 -2 17 15 -1 -9 16 18 -7 -10 -3 -4 -12 -13 -6 -15 24 25 -17 26 -19 -28 29 -18
right_child=1 6 4 -5 20 14 -8 11 9 -11 13 19 -14 21 -16 22 28 23 -20 -21 -22 -23 -24 -25 -26 -27 27 -29 -30 -31
leaf_value=0.00031626221428570581 0.0025339738974052626 0.00098625776237787886 0.0010319153379528012 0.0010907097749188698 0.00083097452639934908 0.00052319431954207741 0.0032024326826678691 -0.00025709143699354707 0.00068678414058843452 0.0005189376485262631 -0.00068582851634111188 0.00055356287828241756 0.00045513348125612776 0.00048504059464221243 0.0018023499375285194 1.7307555063026939e-05 0.017312131226062774 0.0015991464853286745 -0.00034943629706892594 6.4679306074781509e-05 0.0024968262470943647 -0.0004029968454853165 -0.00051132647578572396 0.00090212545912252389 -0.00050761143302934712 -0.00043925367709663176 0.017798220814967698 0.0065721947586897646 0.0020370670029146161 0.0011232600579487867
leaf_count=6759 1193 6154 2588 16845 7867 5694 2267 31026 4372 10714 82479 17230 5754 6185 4241 35219 25 25 38342 41559 1159 8340 27563 89 11761 27 44 33 5351 29
internal_value=0 0.0092572003488159485 -0.0054087571728450795 0.0061582246592946626 0.00045701708648336891 0.0035456132966013736 0.027899802418138386 0.0015981908424337605 -0.0015389468683900238 -0.0024303822881460899 -0.009596838676843699 0.00094625101593411032 0.023166397130190516 -0.010391966414227355 0.021384669432372501 -0.0041694315837350763 0.030167235270528007 0.02693520325182254 -0.011581519222902528 0.0041592460065549329 0.020897625126448143 -0.00049709826297480964 -0.0052195792855600958 0.10168918546870215 -0.0022820192771789722 0.15939890786774399 0.2039181970644231 0.25974133581697167 0.042056330638032179 0.17236215641929042
internal_count=380934 137368 243566 117788 101461 100943 19580 91008 92435 89629 142105 89815 17313 135346 9935 78915 11559 2806 120821 58789 9026 14525 74543 218 46980 129 102 77 5405 54
shrinkage=0.05


Tree=4
num_leaves=31
num_cat=0
split_feature=40 12 2 12 40 40 32 2 3 32 32 34 2 35 17 2 34 3 41 56 34 40 51 18 40 50 4 38 34 2
split_gain=17.102074887040892 7.1052150733415536 4.5911814837943732 4.3141941833740134 3.1914634991232198 2.8446342233849311 2.5121242245722786 2.4856701016708427 2.4198039788121406 1.8432616575585294 1.7434269432475817 1.6825732370741644 1.6290246594020061 1.4949779136284234 1.4524516841370279 1.3504463615359477 1.348555761005283 1.1326452514050152 1.1217423264960082 1.0745036853028522 1.0114025976018803 0.98265715946313215 1.1212268289791387 0.98097331946664745 1.2189413236783755 1.3561037610177182 1.0514755094082266 1.2622609222063845 1.1537539313748431 0.97978686259333259
threshold=0.94351171670000011 9.9999996826552254e-21 1.5000000000000002 9.9999996826552254e-21 0.74985535790000013 1.3506579309 9.9999996826552254e-21 9.9999996826552254e-21 9.9999996826552254e-21 9.9999996826552254e-21 9.9999996826552254e-21 2.5000000000000004 9.9999996826552254e-21 0.55000000000000016 1.5000000000000002 9.9999996826552254e-21 8.5000000000000018 9.9999996826552254e-21 0.33933751805000006 10.500000000000002 2.5000000000000004 1.1229867198500001 4.5000000000000009 9.9999996826552254e-21 0.88955718390000016 8.5000000000000018 9.9999996826552254e-21 2.6730358258906075 6.5000000000000009 9.9999996826552254e-21
decision_type=2 2 2 2 2 2 2 2 2 2 2 2 2 2 2 2 2 2 2 2 2 2 2 2 2 2 2 2 2 2
left_child=1 2 4 5 16 10 14 18 -4 -6 -2 21 20 -11 19 -13 -1 23 -8 -3 -12 -5 -23 26 -25 -26 -9 28 -28 -7
right_child=3 6 8 11 9 29 7 17 -10 13 12 15 -14 -15 -16 -17 -18 -19 -20 -21 -22 22 -24 24 25 -27 27 -29 -30 -31
leaf_value=-0.00035214864591509505 0.0028683969783678391 0.0022406722167597234 0.00085547838038483855 0.0017891516123463389 0.0014735070141690537 0.0011317556665777929 0.00067783584776575896 0.0022725999532710937 -0.00014439075940250449 -0.00038879981245807451 0.00091292802982578759 0.0010914050828329737 0.00119134229051406 8.610506330998456e-06 0.014762394436235941 0.0028590578005120233 -0.00066528678991379525 0.00063835961300487821 4.5043955269990527e-05 0.0082191093189811163 0.00016842131316415344 0.0038288324234275681 0.011873647975532906 0.0012154384338286487 -0.00074155768548900443 0.0088177413271184561 0.016650435732717208 0.0041442957193571694 0.0046595689973660875 0.002894909474912678
leaf_count=84335 684 515 13090 773 1797 8741 11399 378 11253 38122 5072 9331 4979 62399 28 1222 58048 1654 18162 88 45340 741 46 1424 55 114 47 196 35 866
internal_value=0 -0.0035084186532146635 -0.0052318794109514673 0.013112404211006186 -0.0065348054152359388 0.0099144173413242848 0.010091428130904431 0.0089127344311756684 0.0078654091802005943 -0.0022746041481492901 0.007190466376749788 0.030453291982363132 0.0065708460113045857 -0.0028421005493337198 0.072601421740608629 0.025921860059016713 -0.0095962332067965304 0.032631555756841776 0.0057810893706542093 0.062262945661744472 0.0048665370571050982 0.061107267038180278 0.085981007182575397 0.047240562970543395 0.033838307198513551 0.1141345371111963 0.079785979807195137 0.12647031333377892 0.23064765715744437 0.025813818854649458
internal_count=380934 303139 269044 77795 244701 65682 34095 33464 24343 102318 56075 12113 55391 100521 631 10553 142383 3903 29561 603 50412 1560 787 2249 1593 169 656 278 82 9607
shrinkage=0.05


Tree=5
num_leaves=31
num_cat=0
split_feature=40 37 2 11 32 12 32 20 2 40 2 17 40 31 4 36 12 37 4 41 24 35 40 40 41 40 24 12 36 55
split_gain=15.967270109627192 7.3064541337105364 5.9413295281508276 4.5562204764630945 3.4454545810296673 3.0115036057154034 2.3988555907296725 2.3002888925940876 1.9134021149773499 1.8711796910729563 1.8174116606575015 1.5208417887378893 1.3911646109601641 1.3694549110915606 1.7910593757555127 1.3721358813366429 1.3223037420203525 1.1643126624138782 1.1294300004577109 1.1292068906407748 1.2538929590192911 1.1287195922067474 1.0673887821623074 1.0518194029194425 1.1068830285405662 0.99382303356014656 1.2267407579754546 0.99362488695685425 1.4939867198167214 1.4253584861257593
threshold=0.95846193295000004 0.73463423195000011 1.5000000000000002 9.9999996826552254e-21 9.9999996826552254e-21 9.9999996826552254e-21 4.5000000000000009 9.9999996826552254e-21 1.5000000000000002 1.3506579309 9.9999996826552254e-21 1.5000000000000002 0.8335074749500001 9.9999996826552254e-21 9.9999996826552254e-21 0.8500000000000002 9.9999996826552254e-21 1.3857534006500003 9.9999996826552254e-21 0.34720310315000008 12.500000000000002 0.65000000000000002 1.3827523751000002 0.67267352364999999 0.36653784980000004 1.5940772026000001 103.50000000000001 9.9999996826552254e-21 0.45000000000000007 3.5000000000000004
decision_type=2 2 2 2 2 2 2 2 2 2 2 2 2 2 2 2 2 2 2 2 2 2 2 2 2 2 2 2 2 2
left_child=1 7 4 6 19 11 9 -1 12 -2 22 23 -9 -8 25 -16 -4 -12 -10 27 -21 -14 -5 -6 -25 -15 -27 -3 -29 -30
right_child=3 2 16 10 5 -7 13 8 18 -11 17 -13 21 14 15 -17 -18 -19 -20 20 -22 -23 -24 24 -26 26 -28 28 29 -31
leaf_value=0.0004393958312968536 0.000463675230877036 0.0021621913962178306 0.00094472709451820774 0.00015968108523110077 -0.00042434055676332874 0.00061699936395923636 0.0008441394643289576 -0.00055286407560088235 -9.0507288749575119e-05 0.0020095395791144637 0.00097392708560990488 0.00069202299980562526 -0.00040936605340734298 0.0012066632825329198 0.0020851583001984756 0.0039053923295393374 0.0024427745315689048 0.0031946949689514504 0.0010325563979528345 0.0075618937222370472 0.00061069397102833851 0.00024782647589884885 0.00092472917344153794 0.00015802142168435499 -0.00023732551208443164 0.017855780264362693 0.0022498800638405718 -0.00032638335472037056 0.013197974720969797 0.0011002983685050693
leaf_count=8120 11599 1196 10709 35777 29916 15322 3627 118654 12377 2355 3427 5323 17182 4555 3220 1526 1708 713 2733 67 2046 10542 5225 30407 42381 20 34 58 80 35
internal_value=0 -0.0032283361923455848 0.0021395585750646254 0.013301205777791418 9.5737046607654607e-05 -0.00077996652945335517 0.023593799933018886 -0.0076353724793859186 -0.0084611744432174282 0.014491378402977357 0.0071596676056854625 -0.002640834018654691 -0.0095671036422230668 0.033377746168591176 0.039772958206117377 0.053408505779671808 0.023015770886873118 0.027127853310374535 0.002252505523165593 0.031117322458310556 0.016622117786217343 -0.0031893960616933355 0.0051434662297181249 -0.0034950356859763704 -0.0014434069238045048 0.025732101451053514 0.16059686202141973 0.053490125578933602 0.12432580184988204 0.19032146444787149
internal_count=380934 308856 139248 72078 126831 123349 26936 169608 161488 13954 45142 108027 146378 12982 9355 4746 12417 4140 15110 3482 2113 27724 41002 102704 72788 4609 54 1369 173 115
shrinkage=0.05


Tree=6
num_leaves=31
num_cat=0
split_feature=40 37 2 11 32 12 12 32 40 40 2 2 17 32 17 31 34 36 39 35 12 34 37 45 40 41 20 53 40 40
split_gain=14.410461967287135 6.6109386133533352 5.1815103332316932 4.1119887818970398 3.1875188931203566 2.599092260562037 2.3161233203650706 2.1649672832761535 1.7350896131399534 1.6887397137678954 1.6402140410453092 1.4956910655262421 1.3398309084344171 1.7203692182385435 1.2718330428948059 1.2359330373012849 1.1804940440366902 1.4105343668918717 1.1838461397278017 1.178143581156768 1.148018790967706 1.1456240091101471 1.0507921431653648 1.2280932449780315 1.963895730931795 1.019999702341976 0.9806642933919254 0.9761599745141627 0.96331852334018098 0.96040665209528209
threshold=0.95846193295000004 0.74644990200000005 9.9999996826552254e-21 9.9999996826552254e-21 9.9999996826552254e-21 9.9999996826552254e-21 9.9999996826552254e-21 4.5000000000000009 0.69445412290000008 1.3506579309 9.9999996826552254e-21 5.5000000000000009 1.5000000000000002 9.9999996826552254e-21 1.5000000000000002 9.9999996826552254e-21 7.5000000000000009 0.55000000000000016 0.57449978080000008 0.55000000000000016 9.9999996826552254e-21 2.5000000000000004 1.3857534006500003 9.9999996826552254e-21 1.0217672260000001 0.34720310315000008 9.9999996826552254e-21 6.5000000000000009 1.3827523751000002 0.80241274850000022
decision_type=2 2 2 2 2 2 2 2 2 2 2 2 2 2 2 2 2 2 2 2 2 2 2 2 2 2 2 2 2 2
left_child=1 6 4 7 25 14 8 9 -1 -2 28 19 26 -14 -6 -9 17 -17 27 -10 29 -16 -12 24 -24 -3 -8 -19 -5 -4
right_child=3 2 20 10 5 -7 12 15 11 -11 22 -13 13 -15 21 16 -18 18 -20 -21 -22 -23 23 -25 -26 -27 -28 -29 -30 -31
leaf_value=-0.00061781416095085286 0.00044049144683097272 0.0025952468223467071 0.00053750053265473282 0.00015169703405139387 -0.00016615274341865214 0.00058925624538572652 0.0017706679474242559 0.0008019325013989124 -0.00048776058121650543 0.0019090625961684878 0.00092523075299957662 0.00076516419564586543 0.014941290471081933 0.0014369367169873679 0.00266512336339228 0.0016687840389860533 0.0012406162431625751 0.0023208070405411466 0.0080610180153481426 -0.00012067599790033155 0.0021445637728755521 0.00036619145723506088 0.019879623185153364 0.0023287949588073997 0.0029590813443064693 0.000818933391096093 -3.1473492645074097e-05 0.0045982655663764456 0.00087849277347041102 0.001513343121328617
leaf_count=64532 11599 1332 8056 35777 98150 14471 792 3627 47349 2355 3427 3305 24 1360 617 3042 4009 1493 124 40600 1980 4453 27 639 47 2055 16110 687 5225 3670
internal_value=0 -0.0030669196875544999 0.0021908169719582937 0.012636145561846274 0.00010473313414248479 -0.0007656886193987809 -0.0071379867053159574 0.022414109773766819 -0.0083877032650744761 0.013766809095269086 0.0068016844388944387 -0.0055812465444066437 0.0035088657489408879 0.033422325237121193 -0.0025252586886766021 0.03170885893936206 0.037784310325956291 0.047512086180797955 0.066176558936907284 -0.00636605789145386 0.020619159224625924 0.012919257097754488 0.025771460958401073 0.060699204147530807 0.18265585113014723 0.030350025899428902 0.0010594379929568891 0.060770397758060091 0.0048862931216231472 0.016858389129016802
internal_count=380934 308856 134784 72078 121078 117691 174072 26936 155786 13954 45142 91254 18286 1384 103220 12982 9355 5346 2304 87949 13706 5070 4140 713 74 3387 16902 2180 41002 11726
shrinkage=0.05


Tree=7
num_leaves=31
num_cat=0
split_feature=40 2 11 37 2 37 40 32 40 32 12 32 34 12 48 19 12 12 38 37 39 56 26 52 32 34 36 32 42 40
split_gain=13.157588423738193 6.2263052885495611 5.00929294801983 4.7705827362992839 2.8952901257753214 2.4609108724374185 2.4108652236707737 2.0947049960513007 1.8731955325166478 1.5441247749639544 1.5413882074308809 1.4902584434156341 1.2193432038671057 1.1641706154392963 1.3705226554737582 1.493183678033299 1.1038591909204576 1.08053341641866 1.1158447360265007 0.94425314582626796 0.92132998144298384 1.0705406000983144 1.1543881737235311 0.8985925394629467 0.888706350501134 0.87928514985626016 0.87906851733806368 0.87325866491012327 0.98705494069463873 0.84711597235161662
threshold=0.83110500970000012 9.9999996826552254e-21 9.9999996826552254e-21 0.75931709950000015 1.5000000000000002 0.95737269305000006 1.3506579309 9.9999996826552254e-21 1.0947989362000001 4.5000000000000009 9.9999996826552254e-21 9.9999996826552254e-21 8.5000000000000018 9.9999996826552254e-21 4.5000000000000009 8.5000000000000018 9.9999996826552254e-21 9.9999996826552254e-21 9.9999996826552254e-21 0.62824154445000013 0.49974993495000003 9.5000000000000018 9.9999996826552254e-21 17.500000000000004 9.9999996826552254e-21 7.5000000000000009 1.6500000000000001 4.5000000000000009 3.6736043311500004 1.0160514441000001
decision_type=2 2 2 2 2 2 2 2 2 2 2 2 2 2 2 2 2 2 2 2 2 2 2 2 2 2 2 2 2 2
left_child=3 2 6 10 7 -3 9 -5 11 24 25 26 17 14 15 -7 -6 18 -9 -13 -15 22 -22 -12 -2 -1 -4 -10 -29 -11
right_child=1 5 8 4 16 13 -8 12 27 29 23 19 -14 20 -16 -17 -18 -19 -20 -21 21 -23 -24 -25 -26 -27 -28 28 -30 -31
leaf_value=-0.00033677255610119905 0.0025248091132696131 0.0008851886355196924 0.0015622704514805467 0.00132974276490742 0.00069723811770126777 0.01808301207643968 0.0017839784175812977 0.0012095982772777707 0.00013081413505576427 0.0006684881528978108 5.2278547217646267e-05 -0.00041452361393076438 -0.00031178401341504946 0.0032353487822796264 0.0017798651501835139 0.0027867821355660755 0.0023813552875988912 0.00067505053426762099 -6.9643479351753871e-05 6.1781147357833174e-06 0.011492876576161699 0.015114250401448873 -1.9475310018249586e-05 0.0080733294997896478 0.00026120316656624495 -0.00059797598037543594 0.0088087490505792884 0.0010411089789836743 -0.00020350451708496601 0.0014012046237802042
leaf_count=64418 442 8967 857 2692 7547 27 4547 1777 10276 11111 14772 19892 35325 833 3990 39 1117 6465 41876 40479 38 36 51 35 22836 64458 44 7874 1997 6116
internal_value=0 0.0075993549095518878 0.0053856237232814694 -0.0045823413268987175 0.00084405720745303278 0.02762458893135334 0.013846173466395011 -0.0008706723207186982 0.0007041035986575945 0.011395205769983579 -0.0082380970650633937 -0.0020463406080352114 -0.0017360117908916816 0.045366902264688751 0.037961478198141857 0.18088661495483283 0.018287234373359718 0.0014355191753177394 -0.00035137754684051329 -0.0026488280207122594 0.076720138187354944 0.15677585336565972 0.09791821777150872 0.0014247656270570787 0.0060836851445759416 -0.009348296077154301 0.038322990791216809 0.0090688833391887706 0.015786229520613464 0.018572403025352416
internal_count=380934 140452 126471 240482 96799 13981 45052 88135 81419 40505 143683 61272 85443 5014 4056 66 8664 50118 43653 60371 958 125 89 14807 23278 128876 901 20147 9871 17227
shrinkage=0.05


Tree=8
num_leaves=31
num_cat=0
split_feature=40 12 37 11 2 32 32 32 2 20 2 40 40 20 31 4 36 2 41 41 42 34 37 34 14 43 16 45 37 45
split_gain=11.877320826110735 5.3722896187231566 3.9288883498870257 3.5623503003063135 3.1648396287528429 2.0550446859648122 1.8539176185110104 1.7180505101939718 1.5445591693937164 1.5725886164476104 1.534548544419772 1.4465916972350203 1.4062488447769939 1.3075450101898309 1.1795714990682526 1.4173680990882307 1.2307969206250284 1.0884833365285225 1.5178897494574959 1.2828501907261196 1.2117860510110763 1.0513261974322781 1.0142943025318847 1.0125439152106841 0.98214088822995071 1.0060482522065937 1.590735407283729 0.96217025112718968 0.95974799618006656 1.1697893357774203
threshold=0.94351171670000011 9.9999996826552254e-21 0.66544154129999999 9.9999996826552254e-21 9.9999996826552254e-21 9.9999996826552254e-21 4.5000000000000009 9.9999996826552254e-21 1.5000000000000002 9.9999996826552254e-21 9.9999996826552254e-21 0.71113160605000003 1.3506579309 9.9999996826552254e-21 9.9999996826552254e-21 9.9999996826552254e-21 0.8500000000000002 2.5000000000000004 0.39223712655000004 0.30724578685000009 3.3903632027500006 6.5000000000000009 1.0608074652500001 11.500000000000002 10.500000000000002 0.35000000000000003 9.9999996826552254e-21 9.9999996826552254e-21 1.4303627120500002 9.9999996826552254e-21
decision_type=2 2 2 2 2 2 2 2 2 2 2 2 2 2 2 2 2 2 2 2 2 2 2 2 2 2 2 2 2 2
left_child=1 2 21 6 5 -4 12 24 9 -9 -5 13 -2 27 -8 -16 23 18 19 20 -10 -1 -11 -17 -3 -26 -27 -7 -12 -30
right_child=3 7 4 10 -6 11 14 8 17 22 28 -13 -14 -15 15 16 -18 -19 -20 -21 -22 -23 -24 -25 25 26 -28 -29 29 -31
leaf_value=-0.00024957458610477357 0.00039337806116737661 0.0014694906083662163 0.0010229777654519965 0.00019667088441306191 0.00065905427251381214 0.0034312063482935199 0.00065954507788562686 0.0015681289763172632 0.0040199167453325709 4.014635793822272e-05 0.00085572388819692483 -1.0105539988385917e-05 0.0017236696103797345 -0.0004125349701257601 0.0010988327285152354 0.0019838010770923198 0.0034378126068417025 0.0011696497120275921 0.014092131828268371 0.00064627825624392009 0.018917528539896013 -0.00054537002305307962 0.00080764093241470739 -0.0014384189789215553 0.0016096384504560345 0.016819976375271113 0.0049943740240165173 0.00037720377161389306 0.009215772990137339 0.0022122003844481813
leaf_count=50314 12699 382 3809 44391 14445 286 3861 2217 39 22814 3863 72326 2355 50520 5063 3162 1584 2954 36 158 21 74548 5306 232 97 39 105 2625 66 617
internal_value=0 -0.002917307080259471 -0.0044182535240520895 0.010927413713152593 -0.00085883908656787518 -0.002424116319288753 0.019719025109332228 0.0088938604794997385 0.0079275018929377949 0.0057209241110791594 0.0057254213640552318 -0.0031172300643073523 0.012029693013430038 -0.007063233618930952 0.028045539666353637 0.033757496417420589 0.045739497677353837 0.028794381621193858 0.091612091551967492 0.060197873109387692 0.18468161746859552 -0.0085235444256597775 0.0036993184903236489 0.034997441382770264 0.06092676382816814 0.11091479509141436 0.16394282654962605 0.013545069846090113 0.023224065264664816 0.05777946279805541
internal_count=380934 303041 268873 77893 144011 129566 28956 34168 33545 30337 48937 125757 15054 53431 13902 10041 4978 3208 254 218 60 124862 28120 3394 623 241 144 2911 4546 683
shrinkage=0.05


Tree=9
num_leaves=31
num_cat=0
split_feature=40 12 37 2 20 40 2 34 2 32 32 34 37 17 35 4 12 37 39 46 36 36 22 40 32 37 2 38 19 39
split_gain=10.971747642284237 5.3839477298243121 4.0928331352036604 3.5658192039453942 2.9528688737365503 2.5253142183479182 2.2320849262274582 1.7833001421236894 1.6977306256642208 1.5809737058834088 1.4259878995866597 1.2467270155433372 1.1938822397876212 1.1582528094135198 1.1217766195664187 1.051358609198604 1.0253388810332296 1.0008348977455053 0.93391535302848094 1.796033507434506 0.91575974673098259 0.88555208643350181 0.87661379635891823 0.9739287405932151 1.0706635461407799 1.2052164439346278 0.85770499671785982 0.85714702219678873 1.1441447090945163 1.1177367394016715
threshold=0.83110500970000012 9.9999996826552254e-21 0.83535170140000015 9.9999996826552254e-21 9.9999996826552254e-21 1.0947989362000001 1.5000000000000002 7.5000000000000009 9.9999996826552254e-21 9.9999996826552254e-21 9.9999996826552254e-21 7.5000000000000009 1.4421121621500002 9.9999996826552254e-21 0.65000000000000002 9.9999996826552254e-21 9.9999996826552254e-21 0.78242409224999998 0.76154900915000001 2.5000000000000004 1.6500000000000001 0.25000000000000006 1.5000000000000002 1.4293810426000002 5.5000000000000009 0.85238633635000005 5.5000000000000009 2.6730358258906075 9.9999996826552254e-21 0.5873515839000002
decision_type=2 2 2 2 2 2 2 2 2 2 2 2 2 2 2 2 2 2 2 2 2 2 2 2 2 2 2 2 2 2
left_child=2 3 4 5 17 10 9 8 -3 -4 20 16 22 -11 -12 -7 -6 -1 -17 -20 -2 -10 23 -5 -25 26 -26 28 -23 -29
right_child=1 7 6 12 11 15 -8 -9 21 13 14 -13 -14 -15 -16 18 -18 -19 19 -21 -22 27 -24 24 25 -27 -28 29 -30 -31
leaf_value=0.00039301334937630111 0.0014256011686172255 0.0012977705996994589 0.001331292282813804 0.0012938805055696498 -0.00031973550208591172 0.00015868314259205431 0.00095623590581966368 0.00056505165791471523 0.0011014753326566683 -9.1261077661036584e-05 -0.00024508838637738118 -0.00053945345145404164 0.0024735287971874107 0.00072120934121048348 0.00013232881598291351 0.0007698779323746911 0.0002678212521535983 0.0022343959738744304 -0.0023112014202134952 0.018131602436981416 0.0080953202486314154 0.014109005308464954 0.00052014792977377955 0.0014857912342995407 0.007873973910075922 0.0025965201262480174 0.02138593433343846 0.002311817970880068 0.0049513662446502814 0.012553292426413724
leaf_count=7293 1096 10060 2186 3620 68766 10866 6806 8638 360 63160 35289 78412 1312 4714 44534 16929 8324 821 21 22 54 38 6517 100 24 39 23 549 333 28
internal_value=0 0.0069404425281125569 -0.0041834688951971899 0.0044171337709811905 -0.0070111145630470479 0.0026379112712331941 0.001835422078587348 0.022132007386727201 0.030361947163750722 0.00015584815861436593 -0.00018677495008404286 -0.0079815322592542304 0.021056495990154311 -0.00069666406300051599 -0.00069047582172765637 0.010854137918216477 -0.0051258496389968225 0.011586604514548366 0.01577141590968684 0.16295815059958502 0.034775759551836094 0.064253188607023767 0.017445213136418457 0.029503640052688729 0.10007476041554123 0.18188747638013475 0.2897241972386837 0.080287498209766953 0.11778690895904106 0.056176091991429519
internal_count=380934 140452 240482 120446 163616 108811 76866 20006 11368 70060 80973 155502 11635 67874 79823 27838 77090 8114 16972 43 1150 1308 10323 3806 186 86 47 948 371 577
shrinkage=0.05


Tree=10
num_leaves=31
num_cat=0
split_feature=40 12 36 40 34 2 20 2 3 32 35 2 34 37 20 32 39 0 43 50 37 31 56 49 41 55 40 40 2 32
split_gain=9.7392645595061591 4.6269708331074328 3.3507599626834321 3.0269202180203232 2.1478545767998956 1.9834159790785004 1.8179569655683183 1.8150441181581636 1.6592850686215659 1.5074028711094203 1.4719651929521136 1.4459061213054862 1.3087308231927495 1.2214933903169873 1.1724467473398901 1.1680147205980307 1.0428460990289139 1.3434623165274471 1.0157842637812906 1.5591673980203851 1.4854015509488345 1.4390791916901478 1.1014283655190789 1.0561856513317378 1.5851471780399833 1.0019132088919886 0.96700416508552833 0.91116112052393683 1.0278885677587284 0.83318978005615385
threshold=0.83110500970000012 9.9999996826552254e-21 0.45000000000000007 1.2221213427500002 6.5000000000000009 9.9999996826552254e-21 9.9999996826552254e-21 1.5000000000000002 9.9999996826552254e-21 9.9999996826552254e-21 0.65000000000000002 9.9999996826552254e-21 11.500000000000002 0.8244316006000002 9.9999996826552254e-21 1.5000000000000002 0.57449978080000008 1.5000000000000002 0.65000000000000002 10.500000000000002 0.7265070225000001 1.5000000000000002 8.5000000000000018 2.5000000000000004 0.43191433945000007 4.5000000000000009 1.3182805604500001 0.66781761870000012 9.9999996826552254e-21 4.5000000000000009
decision_type=2 2 2 2 2 2 2 2 2 2 2 2 2 2 2 2 2 2 2 2 2 2 2 2 2 2 2 2 2 2
left_child=2 3 6 5 16 10 -1 9 27 12 -2 -6 -4 -7 -11 -12 29 25 22 -20 -21 -22 -13 -24 -25 -18 -27 -8 -29 -3
right_child=1 4 7 -5 11 13 8 -9 -10 14 15 18 -14 -15 -16 -17 17 -19 19 20 21 -23 23 24 -26 26 -28 28 -30 -31
leaf_value=0.000406203849602046 -0.00018310548949060577 0.001066877209336514 0.0011803499670204765 0.0008335404793769791 0.00034382429643562112 0.00029051012266020589 -0.00041970939775299622 0.00091782375916395318 -0.0005011648705293512 0.00083136925914831055 0.00085841497823007794 -5.2226784268045821e-05 0.010546958760211342 0.0013932824873138722 -8.1966224295180459e-05 0.00012920119077976667 0.0021521003606418771 0.01716431139037013 0.0026150087814456151 0.00092107701514448448 0.0043691127747297288 0.021182091981172563 0.00010704399425197732 0.0043678386797478732 0.019240072108805181 0.0022225262317806483 0.016972981721162798 -0.00013138584281742862 0.00062301365647509516 0.0020454780371653536
leaf_count=8335 41347 4776 2004 16896 9485 5725 26183 6151 86202 3742 6232 615 38 4473 57609 46205 198 20 324 28 20 35 132 172 20 20 25 44908 5020 3994
internal_value=0 0.0065810671164452435 -0.0038949650160137236 0.0042567453875608395 0.020725215422128341 0.002239588295729168 -0.0062793238851958279 0.0019558067588077961 -0.0070189587037979631 0.0003644557976776593 0.0007993944575494516 0.011228994475392993 0.027093102515152456 0.015484061615972992 -0.00052517756766412051 0.0043173267594671565 0.03211163954192138 0.094157959458492549 0.04190027498450534 0.083626952159609788 0.20591460994209151 0.3013656272129579 0.023814271139705016 0.070999969279876465 0.11834059323882684 0.07365357523224482 0.20834447451763682 -0.0036162967337459257 -0.001110698154839011 0.030250957428117706
internal_count=380934 140742 240192 120878 19864 103982 170648 69544 162313 63393 93784 10831 2042 10198 61351 52437 9033 263 1346 407 83 55 939 324 192 243 45 76111 49928 8770
shrinkage=0.05


Tree=11
num_leaves=31
num_cat=0
split_feature=40 12 36 40 34 2 20 2 3 32 35 2 34 37 20 32 40 34 50 0 43 43 50 37 31 56 14 49 43 39
split_gain=8.7896862847406876 4.1758413679859725 3.0240606999447652 2.7317955037063748 1.938438827223167 1.7900328631114699 1.6407061216224177 1.6380771718299412 1.4975049270737602 1.3604311134129758 1.3284486108569873 1.304930282952238 1.181129608081801 1.1023976855056072 1.0581331952105435 1.0541332932293497 0.96833417897153495 1.1859699753987369 1.2966977069550216 1.0174206717134657 0.93314695497020717 0.91674528972999436 1.4071485817924083 1.3405749298296255 1.2987689933489603 1.0095371412802343 0.93112651237743638 1.1895082674602997 1.1448134966600221 0.87837786182742117
threshold=0.83110500970000012 9.9999996826552254e-21 0.45000000000000007 1.2221213427500002 6.5000000000000009 9.9999996826552254e-21 9.9999996826552254e-21 1.5000000000000002 9.9999996826552254e-21 9.9999996826552254e-21 0.65000000000000002 9.9999996826552254e-21 11.500000000000002 0.8244316006000002 9.9999996826552254e-21 1.5000000000000002 1.3827523751000002 9.9999996826552254e-21 10.500000000000002 2.5000000000000004 0.8500000000000002 0.65000000000000002 10.500000000000002 0.7265070225000001 1.5000000000000002 10.500000000000002 8.5000000000000018 2.5000000000000004 0.25000000000000006 0.49974993495000003
decision_type=2 2 2 2 2 2 2 2 2 2 2 2 2 2 2 2 2 2 2 2 2 2 2 2 2 2 2 2 2 2
left_child=2 3 6 5 16 10 -1 9 -8 12 -2 -6 -4 -7 -11 -12 -3 -18 19 -19 29 25 -23 -24 -25 -13 -27 -28 -29 -20
right_child=1 4 7 -5 11 13 8 -9 -10 14 15 21 -14 -15 -16 -17 17 18 20 -21 -22 22 23 24 -26 26 27 28 -30 -31
leaf_value=0.00038589365429501373 -0.00017395021557108041 0.0013367452734970376 0.0011213324742834129 0.00079186345654747893 0.00032663309089466343 0.00027598462728824159 -0.00017177408071753473 0.00087193253148335642 -0.0004761066283780111 0.00078980079610627455 0.00081549423450271721 0.00046812442017089037 0.010019610979055104 0.0013236183265468539 -7.7867915516920634e-05 0.00012274113383247743 0.0072157415237726896 0.0008589490134888072 0.0005610714847635892 0.0083887870772741732 0.0150316229313612 0.0024842583453627649 0.00087502308056822847 0.0041506571136415002 0.020122987500258857 -0.00075400461527434272 0.0011677201164679396 0.019859620216967806 0.0049778563203290108 0.0080466223317523337
leaf_count=8335 41347 7975 2004 16896 9485 5725 76111 6151 86202 3742 6232 807 38 4473 57609 46205 141 686 72 48 25 324 28 20 35 44 36 28 24 86
internal_value=0 0.0062520138189499181 -0.0037002167180877864 0.0040439081259829842 0.019688955016818274 0.0021276088863076978 -0.0059653575814993037 0.0018580163150919067 -0.0066680106506482656 0.00034623296883992016 0.00075942476220529993 0.01066754495066549 0.025738447557963305 0.014709858336672406 -0.00049891873514192129 0.0041014604794898848 0.030506058130567948 0.058932279745409079 0.045803665074813329 0.027027269835489972 0.12111445253745454 0.039805261528930373 0.079445604665127081 0.19561887976814465 0.28629734719341454 0.022623557954455337 0.10369691498238932 0.16308541862632742 0.25982227606269032 0.092709704738440396
internal_count=380934 140742 240192 120878 19864 103982 170648 69544 162313 63393 93784 10831 2042 10198 61351 52437 9033 1058 917 734 183 1346 407 83 55 939 132 88 52 158
shrinkage=0.05


Tree=12
num_leaves=31
num_cat=0
split_feature=4 2 5 35 12 12 32 32 22 41 31 2 2 11 32 20 35 37 37 43 39 34 37 32 37 56 37 22 22 19
split_gain=8.1774051267875514 4.7889249583597717 3.9038300347394301 2.6439816468830557 2.3794975882866831 2.3155281304287314 2.0521324758444495 1.9386995876520534 1.8146361519569385 1.7224550407800692 1.5306523120342117 1.4198463620505557 1.4377711847291668 1.3511413827787693 1.2831348302634702 1.2594756758098171 1.0011575227617919 0.99885353228293372 0.98593463437050266 1.1948815029396425 1.3858375745581415 0.98545629704227267 0.95646824140385478 1.0279623787482892 0.91961206190919853 1.2052099190687051 1.9277643963046986 0.88191744955985696 1.0240237944858883 0.9706664853123157
threshold=9.9999996826552254e-21 9.9999996826552254e-21 9.9999996826552254e-21 0.55000000000000016 9.9999996826552254e-21 9.9999996826552254e-21 9.9999996826552254e-21 1.5000000000000002 9.9999996826552254e-21 0.32411416820000005 3.5000000000000004 1.5000000000000002 2.5000000000000004 9.9999996826552254e-21 5.5000000000000009 9.9999996826552254e-21 0.35000000000000003 0.96193163665000014 1.4421121621500002 0.55000000000000016 0.57007084480000014 8.5000000000000018 0.72951179165000013 5.5000000000000009 1.8410254981000003 7.5000000000000009 1.9447043211500004 1.5000000000000002 9.9999996826552254e-21 3.5000000000000004
decision_type=2 2 2 2 2 2 2 2 2 2 2 2 2 2 2 2 2 2 2 2 2 2 2 2 2 2 2 2 2 2
left_child=2 4 3 -1 14 18 9 -5 -4 17 -10 15 -13 -12 16 -9 -2 -6 -3 20 24 -17 -8 27 -20 -26 -27 28 -24 -30
right_child=1 5 8 7 6 -7 22 11 10 -11 13 12 -14 -15 -16 21 -18 -19 19 -21 -22 -23 23 -25 25 26 -28 -29 29 -31
leaf_value=-0.00048816825306185503 -0.00031012473341707507 0.00092085707353004487 -0.00015984316273876765 0.0003177965266468151 0.0075116904984627447 0.0032427152366596083 0.00031486010240329497 0.00041058543647304102 0.0001916302491260016 0.0028287508327401048 0.0015172186303521774 0.0025575298275025788 0.00021007110772516802 0.00047365148913326943 0.00051001725057994664 -0.00015486996120570945 0.00017651946072745947 0.021261916108429434 0.0027340936654958801 0.00034370783319663723 0.01703873857855797 -0.00045677514322633073 0.00077654947657138118 0.0021743811631299709 0.0013476698898843356 0.024482542090117933 0.0045436143530187779 0.00032669281290603844 0.00080081843632332818 0.004855291097324051
leaf_count=70613 14187 7072 21512 21882 28 1529 4550 6979 27324 99 4785 699 9759 8817 21140 64231 41438 25 449 338 20 46668 1000 2089 35 22 27 2985 235 397
internal_value=0 0.0078686032989310067 -0.0027425752858658173 -0.0047165446036835324 0.0055710764528797913 0.029210768764256941 0.01904678770352735 -0.0023441848800203895 0.0042389683001395635 0.13446336435644249 0.0081474765445155028 -0.0038276028256188058 0.0073394478671145865 0.016815286466583156 0.0035684591930948981 -0.0048183306641010146 0.0010480445197793874 0.27995291949724249 0.022366744339228441 0.05371533186665154 0.082345200254570081 -0.005638325839239366 0.017488212752279738 0.025081278470170131 0.072648030599163346 0.16868141896667935 0.26991571980167406 0.016753174880959655 0.035444759494424161 0.066953889182709822
internal_count=380934 97665 283269 220831 88173 9492 11408 150218 62438 152 40926 128336 10458 13602 76765 117878 55625 53 7963 891 553 110899 11256 6706 533 84 49 4617 1632 632
shrinkage=0.05


Tree=13
num_leaves=31
num_cat=0
split_feature=40 12 40 12 40 2 2 32 32 37 32 31 35 41 41 35 35 32 17 19 43 37 54 2 42 50 44 47 37 52
split_gain=7.673661054632877 3.7990557163483212 2.6483918886007038 2.2430466462560905 1.8637750212260693 1.8588437552728321 1.8541829482652077 1.7354374613435204 1.707198977686208 1.5235064745381997 1.5034091917029684 1.4690149644831789 1.3479310733346308 1.296449584091719 1.2551770904284583 1.2410517323656911 1.0251226763526149 1.0235807898971503 1.0145504370605933 1.0093962472260194 1.0064197589053818 0.9625212009237254 0.92832136304465562 0.91063702112776124 1.0804471669251301 0.85257653476971185 0.87470849201207646 1.0725389448942551 0.84424404143207543 0.82862678610325902
threshold=0.78329010485000017 9.9999996826552254e-21 1.2221213427500002 9.9999996826552254e-21 0.60632853920000018 9.9999996826552254e-21 9.9999996826552254e-21 9.9999996826552254e-21 9.9999996826552254e-21 0.82783601300000009 9.9999996826552254e-21 3.5000000000000004 0.65000000000000002 0.34445608535000005 0.32870958950000001 9.9999996826552254e-21 0.75000000000000011 9.9999996826552254e-21 1.5000000000000002 1.5000000000000002 0.25000000000000006 0.90190768370000007 5.5000000000000009 4.5000000000000009 3.0811388301000004 8.5000000000000018 0.35000000000000003 1.5000000000000002 0.81374901730000015 11.500000000000002
decision_type=2 2 2 2 2 2 2 2 2 2 2 2 2 2 2 2 2 2 2 2 2 2 2 2 2 2 2 2 2 2
left_child=3 2 6 4 -1 17 10 -6 15 -8 11 -2 28 -10 -13 -5 -9 19 -19 20 -3 -7 -11 29 -25 26 -17 -28 -12 -23
right_child=1 5 -4 8 7 21 9 16 13 22 12 14 -14 -15 -16 25 -18 18 -20 -21 -22 23 -24 24 -26 -27 27 -29 -30 -31
leaf_value=-0.00056453280278332568 0.0011061378831685406 -0.00097267513296433864 0.00074012140671997763 0.012889070965109335 0.00075677741509070696 0.0012316556001388576 0.00018641717249309492 -0.0003253216288042559 0.00066518623029358835 0.0012314095545121813 -0.00031108770839494647 0.015325773123538855 0.00014558253199706506 -0.00011708278942546539 0.0034125812935517797 0.00064516073348475436 -4.7489712682450475e-05 0.00044170980239162394 0.0012716221192548803 0.0013943824988171345 0.011718210868048863 0.0028373830047779321 0.0117640487761015 0.012099624859790008 0.0041002017738563682 0.0011014718287743819 0.016538749771813552 0.0048229720210656527 0.00013604812215583701 -0.0015473707477212885
leaf_count=40646 1681 21 16896 31 4771 1580 7815 82258 8888 5499 39622 33 65380 13107 67 51 55671 15917 4791 131 61 681 21 48 350 312 30 56 14391 128
internal_value=0 0.0048449406161941181 0.0030018105323832314 -0.0041608560801250439 -0.0053166713854088414 0.016615613399195102 0.001519506485786589 -0.0036150695570465897 0.0052680254754951189 0.012711535609440048 0.00028784203331395567 0.029127582721516766 -0.000142363909795684 0.0039805147477607076 0.14687869194895029 0.06426552225990842 -0.0042636583078141908 0.013383763004178944 0.012674364011993055 0.082351999296129033 0.16936211833139744 0.040875944261819092 0.025429587552755855 0.062138309605055439 0.1012991263376708 0.050904736495296782 0.11666454361194242 0.17819742472885652 -0.0038390937944864823 0.042872543153163085
internal_count=380934 175113 151405 205821 183346 23708 134509 142700 22475 13335 121174 1781 119393 21995 100 480 137929 20921 20708 213 82 2787 5520 1207 398 449 137 86 54013 809
shrinkage=0.05


Tree=14
num_leaves=31
num_cat=0
split_feature=4 2 5 40 37 11 32 31 24 22 32 11 40 31 35 2 32 37 39 37 42 2 40 31 45 45 32 35 40 31
split_gain=7.0781672620249623 4.1374743373840683 3.4245247479606165 2.7816560025250996 2.2479798126073991 1.6758108359433876 2.169597365144845 1.6236016321908981 2.088784128940635 1.5952738719418085 1.5754910594993139 1.3560008697381809 1.2272949205734591 1.1885730271624273 1.1670520226225396 1.421297668469395 1.0874547088835005 1.061284265539431 2.7011595288906207 0.98516252221971778 0.90745824798571817 1.0401114078228377 0.86537128518857553 0.85872250004743433 0.8311890180594288 1.6951472497372619 0.82992977374475041 1.1678906327338039 1.1539436489449324 0.82540349984605998
threshold=9.9999996826552254e-21 9.9999996826552254e-21 9.9999996826552254e-21 1.0947989362000001 0.59503145385000022 9.9999996826552254e-21 9.9999996826552254e-21 2.5000000000000004 66.500000000000014 9.9999996826552254e-21 9.9999996826552254e-21 9.9999996826552254e-21 0.63839772310000009 3.5000000000000004 0.65000000000000002 1.5000000000000002 4.5000000000000009 1.4421121621500002 0.57449978080000008 0.72348977420000005 2.5476205269500007 4.5000000000000009 0.64423700765000003 3.5000000000000004 0.35000000000000003 9.9999996826552254e-21 9.5000000000000018 0.15000000000000005 0.8459004200500001 2.5000000000000004
decision_type=2 2 2 2 2 2 2 2 2 2 2 2 2 2 2 2 2 2 2 2 2 2 2 2 2 2 2 2 2 2
left_child=2 3 4 5 -1 6 7 -2 -9 -4 22 13 -12 -11 -14 -16 -5 -3 -19 -8 -13 -22 -6 -24 25 -25 -15 28 -28 -17
right_child=1 17 9 16 10 -7 19 8 -10 11 12 20 14 26 15 29 -18 18 -20 -21 21 -23 23 24 -26 -27 27 -29 -30 -31
leaf_value=-0.00044271099328549787 0.0028093047878460877 0.0011672160930063119 -0.00014919877383413259 0.00043605930377708631 -8.3698041252651764e-05 -9.0854918398141548e-05 5.6022434131070238e-05 0.021433966819729127 0.00084609622135758402 0.00045328791405925637 -0.00040259438834331946 -0.00062052041913849838 -0.00030994536020000578 0.0012247187796768162 -1.2192185385046303e-05 0.0003748862193441603 0.0011707026187344498 0.0023582543668012618 0.016102546619603763 0.0006752442243969745 0.00021569660422814915 0.002064953403833785 0.0010759499715990307 -0.0026498465007171036 0.0021377039158291984 0.015036165718698785 0.0032592604774981737 0.0027109635712210828 0.020244133519008757 0.0016147024671775659
leaf_count=74879 393 8399 21512 10983 1861 41740 13091 28 22 9688 33159 3194 31652 4411 70115 4046 9305 1056 37 12611 22472 787 2934 20 114 42 20 334 20 2009
internal_value=0 0.007321275436793678 -0.0025509775747617628 0.0051857279383247133 -0.0043997995815915261 0.0021151748617772564 0.008392974999828556 0.077779772886943335 0.24750607512891293 0.003987944437317795 -0.0021145103326980275 0.0076526060507170427 -0.0027314526131000678 0.015434557536486551 -0.0010952345011772926 0.0010255669743346935 0.015460003155271879 0.027158783820959723 0.056470463609651807 0.0071970232659560231 0.0033949345634172253 0.0055653746240441606 0.015382399672001234 0.025588794168791586 0.093434122338129033 0.18662000973258289 0.028329213165610934 0.073557738648020329 0.2350339399650693 0.015724944343604302
internal_count=380934 97665 283269 88173 220831 67885 26145 443 50 62438 145952 40926 140981 14473 107822 76170 20288 9492 1093 25702 26453 23259 4971 3110 176 62 4785 374 40 6055
shrinkage=0.05


Tree=15
num_leaves=31
num_cat=0
split_feature=40 12 32 2 34 4 32 34 12 32 17 36 2 36 24 21 14 32 32 40 36 46 5 32 31 2 4 18 38 34
split_gain=6.8785547111727006 3.1215070539451069 2.2738550693424253 2.1525348565847442 1.7059939853851365 1.5756470759639427 1.5199269134051985 1.4187314556950024 1.3693489023203425 1.2971301904285575 1.4862386660777127 1.2020547714564334 1.144220513787209 1.4301855160240589 1.9785228094523761 1.562102842697378 1.1086024272192314 1.1813249999818396 1.1071068001024442 1.054486595057381 0.99168882323474095 0.97871390493858046 0.97551803245225877 0.91412267810373304 0.89151571870584601 0.88284405236157215 1.0704858619158084 0.98311111659154049 1.2484866470547931 1.1163176330311817
threshold=0.95846193295000004 9.9999996826552254e-21 5.5000000000000009 1.5000000000000002 8.5000000000000018 9.9999996826552254e-21 9.9999996826552254e-21 5.5000000000000009 9.9999996826552254e-21 9.9999996826552254e-21 1.5000000000000002 0.75000000000000011 9.9999996826552254e-21 0.95000000000000007 60.500000000000007 9.9999996826552254e-21 7.5000000000000009 9.9999996826552254e-21 6.5000000000000009 1.2360951791000001 0.8500000000000002 1.5000000000000002 9.9999996826552254e-21 1.5000000000000002 9.9999996826552254e-21 1.5000000000000002 9.9999996826552254e-21 9.9999996826552254e-21 2.6730358258906075 6.5000000000000009
decision_type=2 2 2 2 2 2 2 2 2 2 2 2 2 2 2 2 2 2 2 2 2 2 2 2 2 2 2 2 2 2
left_child=1 3 6 4 16 -4 -2 19 24 10 -3 25 21 -14 15 -15 -1 -18 -19 -8 -5 -10 -20 -6 -7 -11 -27 28 29 -28
right_child=2 9 5 20 23 8 7 -9 12 11 -12 -13 13 14 -16 -17 17 18 22 -21 -22 -23 -24 -25 -26 26 27 -29 -30 -31
leaf_value=-0.00022621157653078167 0.0023516187011685522 0.0020523781234080777 0.00045141149424260613 0.00015866775413489364 5.9705137230608616e-05 0.00024507678703015974 0.00030598407894791708 -2.4459724984750284e-05 -0.00037546408478793166 7.1712683091610898e-05 0.013642779121111179 0.0009570927919069919 0.0025943404705334114 0.008484502695500851 0.0051092689798066492 0.028246226068586112 0.0010871930571650036 -9.0925869555689268e-05 0.00025451237024634013 0.0012318283759264483 0.0011207367960943875 0.0025461710593896771 0.0015337341066443571 -0.00042385019609493752 0.0012857305656464818 0.000520476488721969 0.017020055053657609 0.0013926975536415146 0.0031679902360707093 0.0030636650226686314
leaf_count=82662 818 598 14801 21688 10975 2885 10675 29536 377 25886 29 5692 238 20 95 20 2628 52407 9404 4320 3056 1196 1771 89279 7180 2152 38 347 138 23
internal_value=0 -0.0022108217091698682 0.0086335035802722945 -0.0033458891060438229 -0.0042294333288499077 0.015933949206044972 0.0043172110905102925 0.0035325666118531749 0.024443777835882235 0.0066956020361205052 0.051769145528237782 0.0058710859966305548 0.048726811792552165 0.098522689563019988 0.18074001901679568 0.36730728764086962 -0.0020819808423476697 0.0009671254315325058 0.00010837198793958401 0.01145432294334281 0.0055497558200307317 0.036918889091735574 0.0091448365685257074 -0.0074182891008945269 0.019748816675457029 0.0032284459904078138 0.020442850222249134 0.059988098580649483 0.11602100905910809 0.23515619264274348
internal_count=380934 308773 72161 273870 249126 26812 45349 44531 12011 34903 627 34276 1946 373 135 40 148872 66210 63582 14995 24744 1573 11175 100254 10065 28584 2698 546 199 61
shrinkage=0.05


Tree=16
num_leaves=31
num_cat=0
split_feature=4 5 40 2 37 32 47 12 14 32 32 32 34 2 31 12 34 52 52 37 24 37 2 34 2 32 52 12 19 31
split_gain=6.3091439824458693 3.2107492461412486 3.0429541907460518 1.9556034247021046 1.9456621159667549 1.5297671456544606 1.3738686125725161 1.3187424847392102 1.294860874323613 1.2831031597503797 1.192488687810183 1.1580282626332066 1.0200115190756689 0.94723734899494594 0.88886404419259435 0.7984892290214507 0.80842370519353235 1.0443047340209102 0.78126314210259307 0.77341436723070689 0.8076100509842421 0.75245340600591604 0.80739685512021886 0.71369590029022012 0.75822976481257598 0.70250890440554625 0.68196007221631039 0.81960399786924487 1.3295140285803368 1.1502831110095295
threshold=9.9999996826552254e-21 9.9999996826552254e-21 1.0947989362000001 1.5000000000000002 0.55649566140000017 4.5000000000000009 5.5000000000000009 9.9999996826552254e-21 8.5000000000000018 4.5000000000000009 9.9999996826552254e-21 1.5000000000000002 8.5000000000000018 1.5000000000000002 9.9999996826552254e-21 9.9999996826552254e-21 11.500000000000002 13.500000000000002 9.5000000000000018 0.92651900765000017 1.5000000000000002 0.59973947020000007 9.9999996826552254e-21 12.500000000000002 5.5000000000000009 9.9999996826552254e-21 10.500000000000002 9.9999996826552254e-21 15.500000000000002 4.5000000000000009
decision_type=2 2 2 2 2 2 2 2 2 2 2 2 2 2 2 2 2 2 2 2 2 2 2 2 2 2 2 2 2 2
left_child=1 4 3 7 -1 19 9 -2 -7 11 18 -4 13 -12 -11 -5 17 -17 -6 -3 -21 -16 -23 24 -10 -22 27 -24 29 -29
right_child=2 5 6 15 10 8 -8 -9 23 14 12 -13 -14 -15 21 16 -18 -19 -20 20 25 22 26 -25 -26 -27 -28 28 -30 -31
leaf_value=-0.00045453921416998644 2.599256528430607e-05 -0.00020428041158638581 0.0017092114290141543 0.00078018352300514759 0.0010316560792478714 0.00013565896104884658 0.012122832259370222 0.00069787677535279482 0.0008590180822934543 0.00049167268868590319 -8.8306962691858107e-05 0.00026232671465303695 -0.00030239083344825636 0.00051581408045297237 0.00068484554886245094 0.0025063934226922106 -0.0018169608593990025 0.011714312317781151 -0.00024680164728528163 0.0089560539427178884 0.0021090456592579056 0.0015392209778874782 0.0028489168309191668 -6.0569502387918432e-05 0.0027356026516155863 0.00020109170289469037 0.00068679265416810454 0.011667496919631959 -0.0043549002303431431 0.0033452373575156846
leaf_count=61839 60330 22990 1610 5746 3599 15438 27 8309 11380 3004 82567 9804 63821 7042 2081 816 104 32 1789 27 508 4941 505 2057 565 9594 214 100 24 71
internal_value=0 -0.0025392338965940162 0.0067796502088132392 0.0037380928921790036 -0.0043320277170783668 0.0037842768060485335 0.017017879222855217 0.0021465317356047019 0.0090291799245397156 0.016745585822074915 -0.0024791096139367406 0.009328336273297988 -0.0029926042645545179 -0.00081663186377011604 0.024484204318394827 0.020047911677802097 0.046872081884629088 0.057077241204854731 0.012143289095099184 -0.00087800006850626618 0.006402374269776006 0.030029926928804226 0.035835051812696007 0.015992929307599438 0.018955615361510785 0.0059407424123434473 0.06313830561104436 0.078241341098078662 0.13330707064805886 0.16424111629787244
internal_count=380934 283216 97718 75337 220657 62559 22381 68639 29440 22354 158818 11414 153430 89609 10940 6698 952 848 5388 33119 10129 7936 5855 14002 11945 10102 914 700 195 171
shrinkage=0.05


Tree=17
num_leaves=31
num_cat=0
split_feature=40 12 37 40 2 41 34 41 41 34 24 37 37 47 37 34 12 34 51 50 21 55 39 27 34 33 40 40 40 47
split_gain=5.7638287859316613 2.6991447769797925 1.9809034252962525 1.9109935041473003 1.5332044738194748 1.3146206278381194 1.1898610589125762 1.0199929432327766 1.0106846780959773 0.93818915056412422 1.2236041844892052 1.0694879091540959 0.92018146646697407 0.92007379434047976 0.88784776333316406 0.8674314622016901 0.82483864434681164 1.8483708736324145 1.0432617380748923 1.2653386422799136 1.6215921035067948 0.77059013044948843 1.0475256338016568 1.2205136584185694 0.74269744049676811 1.4536777274717427 0.72471977786801878 0.71869052622543261 0.70715401748256823 0.69522752205633465
threshold=0.95846193295000004 9.9999996826552254e-21 0.57363963065000012 1.3506579309 1.5000000000000002 0.35249095625000004 2.5000000000000004 0.39420804650000002 0.34212570005000004 5.5000000000000009 54.500000000000007 0.55111851657128419 1.3130355996500003 5.5000000000000009 0.84834395505000015 6.5000000000000009 9.9999996826552254e-21 9.9999996826552254e-21 3.5000000000000004 9.5000000000000018 9.9999996826552254e-21 6.5000000000000009 0.52900850445000003 9.9999996826552254e-21 8.5000000000000018 9.9999996826552254e-21 0.61629055590000015 0.60632853920000018 0.80940749680000013 2.5000000000000004
decision_type=2 2 2 2 2 2 2 2 2 2 2 2 2 2 2 2 2 2 2 2 2 2 2 2 2 2 2 2 2 2
left_child=1 2 15 6 5 26 29 13 -3 10 16 -11 28 -8 -6 -1 18 -18 -5 20 -20 -13 -23 -24 -7 -26 -4 -16 -10 -2
right_child=3 8 4 9 14 24 7 -9 12 11 -12 21 -14 -15 27 -17 17 -19 19 -21 -22 22 23 -25 25 -27 -28 -29 -30 -31
leaf_value=-0.0001556768196224618 0.0012746130782296397 0.00063902919873733285 -0.00026458219865131975 0.0016307827045033343 5.3351012613937955e-05 -9.762983600614907e-05 0.00042522315395601153 8.4616671310097187e-09 -0.00019621082881353554 -0.00049261008358041721 0.0011376482901287999 0.00086363361610246206 0.0011864055417202138 0.010219624754972756 -0.00049937001323598605 -0.000472942845314914 0.019305653691602254 0.0041754228246258943 0.020407138066366317 0.0012879762355060805 0.0050815562034646671 0.00093500949885873578 0.017480185276104343 0.0032410077969817555 -0.00036396312626890454 0.013119004988111554 0.00019510094242318162 0.00097586310815490603 0.0004898137470788973 0.00012269945537960703
leaf_count=35852 4423 14141 10765 602 8517 69903 25763 28410 13853 1639 3528 5479 1755 24 941 53984 24 127 28 63 45 84 27 34 45026 20 42131 6731 5154 1861
internal_value=0 -0.0020217493416115825 -0.0030772355890624011 0.0079050552788565102 -0.0011981974678854099 -0.0020946077170257908 0.0056435881803946391 0.0041332677105564005 0.0062602326825512578 0.019615311407458598 0.031107906456248155 0.012626079364156453 0.0018192208521430541 0.0086867763675402884 0.008095642686970805 -0.00692654879972056 0.06426452133381326 0.13160455461270762 0.050486276042332169 0.12959005850750735 0.21919723151073064 0.019176915533718777 0.091131043511218035 0.19087189100072033 -0.0039930825061478227 -0.0071595363067182274 0.00203099305684725 0.015898403020165822 -0.00020372342727339462 0.018669501373237255
internal_count=380934 308773 273870 72161 184034 167845 60481 54197 34903 11680 4417 7263 20762 25787 16189 89836 889 151 738 136 73 5624 145 61 114949 45046 52896 7672 19007 6284
shrinkage=0.05


Tree=18
num_leaves=31
num_cat=0
split_feature=4 36 40 2 20 34 2 47 32 12 32 32 40 21 17 14 36 42 40 41 14 40 37 53 55 40 12 34 52 52
split_gain=5.4274968761646623 2.5942541181053502 2.5010588358545438 1.704497953507111 1.590410804476996 1.4082002123209341 1.2554801192794853 1.2117752789531266 1.1510506509971705 1.1046680772977253 1.0702457718646072 1.0522264011932287 1.0117253836912106 0.89834587203249594 0.8956031449325188 0.81042613059571789 0.80350984270591597 1.1080410839198525 0.92735971537968709 0.75310995222196619 0.73785447164409113 0.73406875393507676 0.71439706452490359 0.78502843022739732 0.87950007589408408 2.0034411169936206 0.7124919282690847 0.72809531552332651 0.94217480422019317 0.71105189269663671
threshold=9.9999996826552254e-21 0.55000000000000016 1.0947989362000001 1.5000000000000002 9.9999996826552254e-21 8.5000000000000018 9.9999996826552254e-21 5.5000000000000009 4.5000000000000009 9.9999996826552254e-21 9.9999996826552254e-21 1.5000000000000002 0.70722182280000012 9.9999996826552254e-21 1.5000000000000002 7.5000000000000009 1.6500000000000001 3.0811388301000004 0.77213212375000018 0.30372657215000004 9.5000000000000018 0.81437358680000005 0.78799585065000011 6.5000000000000009 6.5000000000000009 1.2747751381500001 9.9999996826552254e-21 11.500000000000002 13.500000000000002 13.500000000000002
decision_type=2 2 2 2 2 2 2 2 2 2 2 2 2 2 2 2 2 2 2 2 2 2 2 2 2 2 2 2 2 2
left_child=1 4 3 9 -1 12 10 8 11 -2 13 -4 -6 19 -12 -14 29 18 -18 -3 -17 -7 -10 -24 -25 -26 -5 28 -28 -11
right_child=2 6 7 26 5 21 -8 -9 22 16 14 -13 15 -15 -16 20 17 -19 -20 -21 -22 -23 23 24 25 -27 27 -29 -30 -31
leaf_value=0.00036714702720377934 2.7985483784331684e-05 -0.00042939139402484243 0.0015993049931683524 0.00072815130308161538 -0.00029524547128017664 -0.00048895371819261105 0.00076465598603561757 0.011364815722185152 0.00064155882273757053 0.00047997531981980627 -2.7755668043106799e-05 0.00022009960124941687 -0.00014810890690157509 0.00079924553238830583 0.0005775032462426704 0.00103701984362177 0.0023860915519651913 0.00041954261324708431 0.01618264072799477 0.0055080000386016452 0.00012921324468423252 -0.00015703252528539305 0.0011026092143195973 0.0021141625452871875 -0.0025755519357820353 0.016410433032521696 0.0023591871695209515 -0.0017434684989544062 0.011105270381085575 0.0026466238976985065
leaf_count=11379 60330 73 1610 5746 50156 60246 7186 27 4419 7798 58273 9804 37002 1551 6828 2460 21 63 29 199 24840 23023 4540 1924 24 33 816 104 32 398
internal_value=0 -0.0023514244277856797 0.0062918535852165272 0.0035343870412744885 -0.0041532075914378899 -0.0048147999366108191 0.0027324194558826379 0.015573800639457238 0.015318074242717744 0.002048515794310893 0.0013837076020922741 0.0082928640785882787 -0.0025385611870615819 0.025281143792124809 0.00071451625058570258 8.7213473949118023e-05 0.012858441553921142 0.096608086431448442 0.20776180148124695 0.078290179111611319 0.0042203119511105419 -0.0079436202034076659 0.022647667370082801 0.029299879201833978 0.045909942258929796 0.16832668196998143 0.018761128832903966 0.044099677702365052 0.053784560908581004 0.011703767338308578
internal_count=380934 283216 97718 75337 209106 197727 74110 22381 22354 68639 66924 11414 114458 1823 65101 64302 8309 113 50 272 27300 83269 10940 6521 1981 57 6698 952 848 8196
shrinkage=0.05


Tree=19
num_leaves=31
num_cat=0
split_feature=4 5 12 40 36 11 32 32 37 32 20 46 40 40 42 49 40 51 37 34 43 39 36 36 22 53 40 41 37 32
split_gain=4.8983159801407563 2.7663737629631675 2.2630650975829427 1.8182023014152047 1.5675627799014054 1.3888926535378656 1.2802776688815147 1.2367515806727356 1.0075526961761838 1.1298230336891351 0.88734855065342222 0.86673179551953528 0.91072598169354269 0.97707794354095157 1.3035297057460038 0.88208103231151203 1.6369704425044684 1.2536739407175181 0.85635005300336542 0.82705509404188049 0.77066206406173698 0.75656485082750258 0.96767300587486149 0.74594342560970039 1.0048825137064448 2.016230181111454 0.74390629553282062 0.71997762714699343 1.0692555302884952 0.84410254815131913
threshold=9.9999996826552254e-21 9.9999996826552254e-21 9.9999996826552254e-21 1.1336558645500003 0.25000000000000006 9.9999996826552254e-21 1.5000000000000002 7.5000000000000009 0.79116209530000015 5.5000000000000009 9.9999996826552254e-21 1.5000000000000002 1.0336869840500003 1.2094155405500002 3.0811388301000004 2.5000000000000004 1.0789112968000001 2.5000000000000004 0.92246272085000014 5.5000000000000009 0.55000000000000016 0.51748959570000008 1.2500000000000002 0.8500000000000002 1.5000000000000002 5.5000000000000009 0.63839772310000009 0.32870958950000001 1.7463354466000001 9.5000000000000018
decision_type=2 2 2 2 2 2 2 2 2 2 2 2 2 2 2 2 2 2 2 2 2 2 2 2 2 2 2 2 2 2
left_child=1 4 3 27 -1 7 -6 21 -4 20 -8 -11 -13 15 -15 16 -14 -18 -7 -16 -10 -3 -23 -17 -25 -26 -12 28 -2 -30
right_child=2 5 8 -5 6 18 10 -9 9 11 26 12 13 14 19 23 17 -19 -20 -21 -22 22 -24 24 25 -27 -28 -29 29 -31
leaf_value=-0.00035760130415753806 0.00030639979479140462 0.00028877943160769644 0.00044061161223089146 0.00067525037042855205 0.00028544951359461119 -0.0001425827930225949 0.00040140174802922565 0.00143784803378972 0.00033790806494246242 0.0004685867146369727 -0.00042817941258488856 0.0017648946819781445 0.00027325830555387904 0.013839261971414088 0.004749222340710138 0.0013174591644814142 0.021364698838442567 0.0074620140416006885 0.00033960588010507702 0.00046641415951587898 0.0016590114942230162 0.0013343664665583395 0.0074241899974542133 -0.00022957210562058857 0.021155108005872794 0.0031540804409555031 -0.00011374825165406289 -5.3587925088324426e-06 0.0024035259967048962 0.012945829769596457
leaf_count=88598 17328 17006 6009 16534 19755 28069 6827 3095 2746 544 24503 1023 28 25 184 95 34 31 13703 291 1846 613 73 28 28 35 80974 50514 375 20
internal_value=0 -0.0022338532001619513 0.005977260953596894 0.0040965495436354983 -0.0038979653078666074 0.0036357736376996892 -0.001714825373680937 0.010315153886865915 0.018291294083575847 0.026501107083042371 -0.0030207225641487546 0.044354674189596835 0.054915561705629251 0.080677916560039906 0.054222599215805529 0.12808887954253878 0.20760718889294133 0.29468375255282109 0.00031191370187142305 0.042508776046727835 0.017379924933221644 0.0070889843180362939 0.039648178245318355 0.088329724867337492 0.15303468585505589 0.22309074272948598 -0.0037358535180188309 0.0018168560879026224 0.0073007216479170842 0.058746270590190643
internal_count=380934 283216 97718 84771 220657 62559 132059 20787 12947 6938 112304 2346 1802 779 500 279 93 65 41772 475 4592 17692 686 186 91 63 105477 68237 17723 395
shrinkage=0.05



feature importances:
Column_40=71
Column_32=69
Column_2=64
Column_37=52
Column_12=40
Column_34=39
Column_36=20
Column_41=19
Column_35=18
Column_20=18
Column_4=15
Column_31=14
Column_3=12
Column_39=10
Column_17=10
Column_52=9
Column_24=9
Column_43=9
Column_11=8
Column_42=8
Column_14=8
Column_22=7
Column_45=6
Column_5=6
Column_50=6
Column_47=5
Column_55=5
Column_56=5
Column_19=5
Column_38=4
Column_53=3
Column_18=3
Column_46=3
Column_21=3
Column_51=3
Column_49=3
Column_0=2
Column_6=1
Column_16=1
Column_54=1
Column_48=1
Column_26=1
Column_44=1
Column_27=1
Column_29=1
Column_33=1

pandas_categorical:null
